youth -0.044278 0.16782 0.31451 0.19487 0.25428 0.03319 0.32894 0.26364 -0.028603 -0.57931 0.24797 0.47753 -0.082024 0.077039 0.20184 -0.63148 0.090362 -0.091969 -0.11813 -0.14996 -0.13303 0.59765 -0.538 -0.085715 -0.28616 -0.34864 0.25511 0.73749 -0.48845 0.46069 0.58593 -0.21931 -0.030543 0.45618 -0.64839 -0.052173 -0.10841 0.0043297 0.21711 -0.33665 0.66618 -0.45392 -0.21069 -0.39473 -0.15945 0.1335 -0.1203 0.30006 0.016694 -0.27894 -0.20388 -0.049661 -0.68819 0.12968 -0.16021 0.31976 -0.0060758 0.13341 0.45236 -0.11769 0.11049 0.25205 -0.15185 -0.46412 -0.18119 0.17151 -0.36651 0.30468 -0.48529 0.024808 -0.32119 -0.55615 -0.28362 -0.044594 -0.17422 -0.095173 0.31298 0.14452 0.39059 0.25623 0.01773 0.35448 0.31407 -0.37168 -0.36417 8.9972e-05 -0.32471 0.0033857 -0.15121 0.55926 0.11295 -0.28539 -0.2049 0.020159 0.26973 -0.30963 1.0283 -0.19378 -0.067135 -0.48438 0.14279 -0.44426 -0.0071152 -0.18272 0.30814 -0.028388 0.15148 -0.033965 0.32285 0.12811 0.1476 -0.58499 0.49166 -0.44477 0.27142 -0.41255 0.081263 0.41523 -0.14974 -0.1972 -0.22377 0.36889 0.37373 -0.1547 0.34951 -0.16357 -0.13213 -0.21116 -0.13995 -0.20806 -0.043763 -0.51575 -0.36364 -0.050924 0.32029 0.2065 -0.023496 0.056484 -0.21998 -0.097741 0.36337 -0.010458 -0.18536 0.23682 0.45097 0.12088 0.54082 0.3308 -0.27775 0.22102 0.68794 0.36115 0.12205 0.28812 0.024523 -0.41161 0.18101 0.31021 -0.27878 -0.020094 -0.11437 0.37184 -0.4025 -0.22828 -0.28475 -0.84814 -0.76893 -0.0077355 -0.079819 -0.37179 0.059842 0.032773 -1.4452 0.49497 0.21759 -0.04751 0.018257 -0.33721 -0.55383 1.0326 -0.1166 -0.070166 0.18405 -0.20333 0.49244 0.22017 -0.41622 -0.13535 0.25639 -0.29844 -0.16563 -0.11312 -0.14827 0.35474 -0.25081 0.78763 0.28923 -0.14183 0.1338 0.3481 1.0065 0.4761 0.13833 0.28964 -0.37075 0.13305 0.30142 -0.14468 -0.35655 0.46373 0.2694 0.24896 -0.62778 0.10749 0.028379 0.0055437 0.44588 0.039877 0.062469 0.17513 0.11167 -0.24336 -0.8211 -0.27743 -0.10562 -0.26471 -0.2579 -0.25724 -0.25975 -0.0069855 -0.021756 -0.046153 0.13542 -0.43431 0.19911 0.33225 -0.026283 0.18003 -0.11775 0.30376 0.55949 0.035532 -0.14803 -0.17632 -0.12714 0.3769 0.20802 -0.3249 -0.45777 -0.041458 0.18676 -0.0062989 0.076555 0.10925 0.23075 -0.40268 0.49095 -0.45122 -0.62218 0.21423 -0.081565 -0.19517 0.41575 0.18767 -0.32305 -0.099671 -0.38208 0.61146 -0.46821 0.81144 -0.27135 -0.59324 0.24784 -0.042167 0.27887 -0.12092 -1.7344 0.49871 0.54859 0.088563 -0.63128 -0.69102 -0.35586 0.29325 0.24693 0.53627 -0.29045 0.63168 -0.44952 -0.017996 -0.6012 -0.35586 -0.5106 -0.11632 0.5349 0.28203 0.22318 0.41067 -0.9056 -0.4938
safe 0.2646 -0.27114 0.30619 -0.16502 -0.053755 0.41263 0.6304 0.2598 0.2593 -2.2378 0.36098 -0.095421 -0.011289 0.31364 -0.59838 -0.12289 -0.11315 0.046152 0.033427 -0.059405 -0.34008 0.15712 0.43881 -0.38746 -0.21958 0.0060588 -0.28286 0.14265 -0.0043153 0.1856 -0.33442 0.068272 0.21817 -0.49015 -0.23177 0.8567 -0.21435 0.24675 -0.053536 -0.28265 -0.099123 0.00089437 -0.087912 0.22346 -0.095 0.34934 0.21605 0.041123 0.25202 0.59854 -0.37585 -0.56182 0.028296 -0.013767 0.037255 0.12866 0.13712 0.087889 -0.23202 0.45548 -0.56174 0.25565 0.070267 0.19852 -0.013129 0.22734 0.27846 -0.63567 -0.14125 0.5859 -0.15483 -0.62313 -0.0038255 -0.049787 0.27259 0.048019 0.40227 0.70198 0.25329 -0.59213 -0.08226 -0.027754 -0.062245 0.53311 0.043623 -0.41008 -0.32275 0.29858 -0.78437 -0.52672 -0.21429 0.39102 0.0017508 -0.048332 0.18921 0.53912 -0.081024 0.31876 0.32908 0.51051 0.38137 -0.28016 0.16338 0.048857 0.076938 0.18029 -0.11962 0.29597 0.10177 0.10419 -0.27494 -0.21852 0.24735 -0.22461 0.0032622 0.27143 0.78865 -0.12025 -0.072126 -0.17947 -0.59203 -0.028789 0.24267 0.59261 -0.12151 0.23645 0.31279 0.055468 -0.14258 0.1867 0.46238 0.026934 0.015595 -0.068987 -0.23867 0.031299 -0.042983 -0.33377 0.20184 -0.35269 -0.10372 -0.21182 0.48619 -0.13719 -0.28967 -0.52297 0.45801 -0.21439 -0.63679 -0.065115 -0.27567 -0.12161 0.095588 -0.0095149 0.27617 -0.22912 -0.3391 0.10235 0.13829 -0.18996 0.095208 -0.27897 0.09972 -0.093658 -0.29376 -0.095741 0.54989 -0.77692 0.035732 0.16008 -0.14634 0.013979 -0.10419 0.92959 0.028642 0.318 0.28234 -0.13771 -0.22727 0.12954 0.24257 -0.34169 0.6561 0.094947 0.12201 0.39861 0.56213 0.039567 0.35939 0.092652 0.42174 0.44102 -0.067212 -0.080394 0.012621 -0.54425 -0.2583 0.13314 0.092343 0.36097 0.48403 0.50809 0.19645 0.02292 0.16358 -0.04314 0.084668 -1.0243 0.22317 0.66419 -0.60891 -0.3085 -0.56999 0.22345 -0.028072 -0.30214 -0.40827 -0.065414 -0.039836 -0.067563 0.56326 -0.15586 -0.10236 0.037278 0.099153 0.12166 0.12566 0.0078548 0.18939 -0.48187 0.018482 0.3409 0.12191 0.18356 -0.093361 -0.37717 -0.58226 0.60902 -0.057466 0.34459 0.25345 -0.25149 0.45449 0.36756 -0.075439 0.31104 0.12298 -0.015162 -0.022037 0.13453 0.029361 -0.42856 -0.55332 0.24359 -0.14269 0.36125 0.19381 -0.30896 0.19278 0.48208 -0.17952 -0.80417 -0.16893 0.12941 -0.048692 0.46858 0.2503 -0.41279 0.27984 0.39457 -0.37048 -0.46345 -0.1669 -0.14742 0.045535 0.073752 -2.3189 0.29643 -0.1167 0.27106 -0.12976 0.20409 -0.54756 0.57891 -0.32693 -0.26537 0.46415 0.14957 -0.21962 -0.036566 0.12618 -0.15391 -0.043997 0.17062 0.18409 0.11865 -0.08657 -0.1366 -0.4007 0.39974
